float stn_conv2_bias_h[100]={-0.0223, -0.0144,  0.0195, -0.0529,  0.0170,  0.0022, -0.0142, -0.0362,
        -0.0325,  0.0367, -0.0192, -0.0224, -0.0093, -0.0158, -0.0033, -0.0270,
        -0.0300, -0.0355,  0.0100,  0.0077, -0.0275,  0.0085, -0.0025, -0.0300,
         0.0038, -0.0181,  0.0123,  0.0031, -0.0336, -0.0345, -0.0347,  0.0085,
        -0.0106, -0.0334, -0.0275, -0.0255, -0.0152, -0.0338, -0.0106, -0.0108,
         0.0194, -0.0469,  0.0034,  0.0091,  0.0235, -0.0577, -0.0043,  0.0402,
        -0.0257, -0.0148, -0.0223, -0.0199, -0.0127,  0.0148,  0.0071, -0.0332,
         0.0123, -0.0074,  0.0191,  0.0067, -0.0136, -0.0062, -0.0265, -0.0501,
        -0.0018, -0.0199,  0.0321, -0.0348,  0.0111, -0.0370, -0.0117, -0.0220,
        -0.0198, -0.0196, -0.0502, -0.0357,  0.0025,  0.0362, -0.0332, -0.0020,
        -0.0275, -0.0218, -0.0230, -0.0134,  0.0213,  0.0103,  0.0254,  0.0280,
        -0.0184, -0.0010,  0.0179, -0.0089, -0.0364, -0.0059,  0.0364, -0.0039,
        -0.0261, -0.0130,  0.0232,  0.0472};
