float   fc1_bias_h[100]={-0.0347, -0.0841, -0.0128, -0.0104,  0.0025, -0.0394, -0.0144, -0.0405,
        -0.0185, -0.0138,  0.0145, -0.0181, -0.0324, -0.0959,  0.0020, -0.0233,
        -0.0535, -0.0453,  0.0146, -0.0704,  0.0338, -0.1372,  0.0180, -0.0219,
        -0.0876,  0.0223, -0.0054,  0.0026, -0.0252,  0.0260, -0.0007, -0.0488,
        -0.0115, -0.0083, -0.0430, -0.0196, -0.0279, -0.0320, -0.0777, -0.0628,
        -0.0025, -0.0231, -0.0051, -0.0245, -0.0644, -0.0568, -0.0600, -0.0100,
        -0.0170,  0.0209, -0.0085, -0.0057, -0.0308,  0.0019, -0.1505, -0.0304,
        -0.0239,  0.0159, -0.0158, -0.0098, -0.0046,  0.0187, -0.0359,  0.0201,
        -0.0363, -0.0285, -0.0202, -0.0078, -0.0170, -0.0045, -0.0359,  0.0188,
        -0.0115, -0.0196,  0.0214, -0.0027,  0.0136, -0.0334, -0.0267, -0.0093,
         0.0168, -0.0441, -0.0559, -0.0256, -0.0163,  0.0228, -0.0438,  0.0242,
        -0.0740, -0.0010,  0.0070, -0.0582,  0.0278, -0.0106, -0.0423, -0.0120,
         0.0261, -0.0109, -0.0279, -0.1784};
